<Nnet3> 
input-node name=input dim=30
component-node name=tdnn1.affine component=tdnn1.affine input=Append(Offset(input, -3), Offset(input, -1), input, Offset(input, 1))
component-node name=tdnn1.relu component=tdnn1.relu input=tdnn1.affine
output-node name=output input=tdnn1.relu objective=linear

<NumComponents> 2 
<ComponentName> tdnn1.affine <NaturalGradientAffineComponent> <MaxChange> 0.75 <LearningRate> 0.001 <LinearParams>  [
  0.1888373 0.1038916 -0.1369658 -0.1186733 0.03724869 -0.003866756 0.1463392 -0.03829542 0.03390992 -0.006012375 -0.07716818 0.1663786 -0.05411845 -0.06719191 -0.06690118 0.03135506 -0.1004208 0.095816 0.02221579 -0.188331 -0.07273706 -0.1067176 -0.07953525 0.0232519 -0.03442323 -0.06199988 0.007072732 -0.1495253 0.03624042 -0.05827868 -0.04731971 -0.1167982 -0.02362534 -0.02325227 0.04679471 0.1266108 0.03927783 0.1341957 -0.1515543 0.06645075 -0.08494695 0.001017062 -0.1410221 -0.2373708 0.1591235 0.01889631 0.02191549 0.07357199 0.09999467 0.05893106 0.1709799 -0.002536949 0.1223979 -0.1378147 -0.03401494 0.1746712 0.01629185 -0.1006872 0.06804836 -0.1382835 -0.06558158 -0.2556045 -0.01487254 0.07420173 -0.06728715 -0.06769318 0.0741135 0.08398987 0.03273357 -0.008002579 -0.01119705 -0.05955562 -0.09185451 0.05644786 0.0911871 -0.1142008 -0.04678316 -0.01022924 -0.1099716 -0.05161096 -0.04167188 -0.1371259 -0.08276403 0.05850065 0.08544441 -0.05325923 0.05623897 -0.1113439 0.0445983 -0.0273187 0.003175487 0.03793484 0.04366694 0.154213 0.05838858 0.02422398 -0.04614929 0.04973067 -0.1632285 0.06310555 0.01565244 0.1061716 0.1837223 0.009387333 -0.1319614 0.1322918 -0.01839863 0.1184272 -0.1610249 -0.03704066 0.05362915 0.03674371 -0.01496434 0.1275242 -0.008353901 -0.09518131 -0.2121496 -0.01916114 0.1624027 0.03013485 
  -0.2085436 0.01221981 0.0716517 0.0741905 -0.07117774 0.0362684 -0.08325057 0.1162016 -0.04464099 -0.05409724 -0.07855652 -0.07020313 -0.1573754 0.0260344 0.07222563 -0.004729953 -0.07857344 -0.02294804 0.03376123 -0.1129222 0.1028942 -0.1074721 0.09046503 -0.1306375 -0.03127774 0.0694315 -0.003029274 0.1769147 0.06753123 -0.05060873 -0.02623082 0.04407859 -0.1705294 0.09461372 0.04178748 0.04149184 0.1479583 -0.03397425 0.118001 -0.03312396 -0.02227966 -0.1385133 -0.09258547 -0.1524176 -0.02869988 -0.0560299 0.05222566 -0.06680153 -0.05534671 -0.03257357 0.01902623 -0.05783015 0.06290092 -0.05339243 -0.06278359 0.05237892 0.04359395 -0.03923023 -0.02382785 -0.08522728 0.01436397 -0.06595103 -0.06890883 -0.1569908 0.1052472 0.08539839 -0.1770214 0.2248481 0.1332606 -0.07204198 0.01817037 0.05838508 -0.06259537 0.04108449 0.1454448 0.08880549 -0.03817385 0.1135055 -0.03496664 0.1113672 -0.05292866 -0.07505933 0.05289612 0.09176749 -0.10182 0.04456162 0.02545853 -0.09643703 -0.07480698 -0.001452631 -0.02994645 0.0402499 -0.105146 0.08077971 -0.1146846 -0.01331098 -0.08210605 0.01601454 -0.0491403 0.01533344 0.08191981 -0.06484016 0.0689907 -0.0494848 0.07021423 -0.01212197 0.1257731 -0.1016966 -0.02657995 0.04945728 -0.1759102 -0.009211201 -0.0543538 0.0349361 -0.03352664 0.220534 0.09065623 -0.1136102 -0.04649584 -0.04244702 
  0.008600767 0.03439875 0.148319 -0.05721251 -0.04594227 0.01322508 0.01890416 -0.1076891 0.09531017 -0.05897448 -0.091419 -0.02350159 0.1252653 -0.01676381 -0.06047583 0.06337789 0.02278726 0.08231291 -0.1142293 -0.06288026 0.02334814 0.1598177 0.05832377 0.1201302 0.1142923 0.01028967 0.1218395 0.0007645179 0.1739373 0.004993199 0.05466027 -0.0232375 -0.1078796 -0.0292334 -0.01218001 -0.09632934 0.05632852 0.1324541 0.07775542 -0.05322613 -0.04641053 0.06758767 -2.835743e-05 0.03061759 0.01241774 -0.0797182 -0.03304716 0.01598357 -0.1272681 0.09999851 0.08397271 0.1277568 0.1439753 -0.02785192 -0.220051 0.002861489 0.1014927 0.1066871 -0.03038901 -0.2038767 0.01249758 0.07590406 -0.03798624 0.09413482 -0.04738956 -0.009629004 -0.1458477 0.02583334 -0.080304 0.2046215 0.05372819 -0.08427691 0.03572234 0.07789532 -0.04167294 -0.1671743 -0.05250802 0.04961018 -0.1262174 0.1058308 -0.03322794 0.07064538 0.01387602 0.01418305 0.1533096 0.02940906 0.02893848 0.04509472 0.1087857 -0.06597495 -0.110467 0.2007698 -0.01220129 0.0141726 0.04600107 -0.114246 -0.03933858 -0.1778721 -0.1475469 0.08066975 0.1759814 0.05638599 0.08014574 0.01310248 -0.06825557 0.1258725 -0.008136949 -0.002724729 -0.09822309 0.0808315 0.07929733 0.03707084 -0.005872996 0.04729493 -0.1724834 0.008383549 -0.04617988 0.04318003 -0.0417874 0.0544972 
  0.1187969 0.02050184 0.0233246 0.0579123 0.01189662 -0.09464059 0.1365389 0.001136603 0.0430893 0.04444956 -0.03834954 0.07094575 0.01641935 0.01713845 -0.05526426 0.03865582 0.08938692 0.2674715 0.0669664 -0.04863526 0.02374117 -0.01622428 0.009236244 -0.04050846 0.2609994 0.04693107 0.001614109 -0.03475502 -0.1786202 0.008093265 0.01963319 -0.1322151 -0.06993862 -0.07447635 0.05641557 0.1273831 -0.0243887 0.09158427 0.0674862 -0.02267994 -0.01642188 0.04678313 -0.08628464 0.02703093 0.01147886 -0.102975 -0.1626755 0.09892824 -0.02438049 -0.07535648 -0.02990245 0.02606972 -0.1440743 -0.01851071 -0.103028 0.132748 0.03243127 -0.0300111 0.0416747 -0.0206114 -0.1389705 0.2169094 -0.06447019 -0.05299108 -0.09504235 0.08623327 -0.06948795 -0.1856754 -0.0155079 0.09510603 0.0194555 0.09638166 -0.009234682 0.0490715 -0.1270682 -0.0355082 -0.05323659 -0.1395502 0.1026825 -0.001693858 0.002545006 0.07388602 0.01341752 0.01579774 -0.03911034 0.06616713 0.1472139 0.09816605 -0.05058846 -0.04346089 -0.1857581 -0.00485267 -0.07211312 0.05506789 -0.1430928 -0.04949071 -0.194981 0.06950957 -0.1535611 -0.104877 -0.07928268 -0.03753127 0.1152623 -0.1094363 -0.05045873 -0.0316308 0.04196357 -0.05302883 0.1309159 0.1274266 -0.1137062 -0.07977872 -0.01656626 -0.2930451 0.02012796 -0.09093488 0.2172551 -0.07477756 0.00656034 -0.01458876 
  -0.1210407 -0.006805794 -0.1444232 0.006364425 -0.05929413 -0.06517397 0.04775975 -0.1634786 -0.1420287 0.01937307 -0.005369151 0.04266043 -0.1330355 -0.02010965 -0.08577987 0.002390514 -0.01804497 0.1567985 0.09893402 0.1304828 0.01882568 -0.09044711 0.08402369 0.1228949 -0.02680546 -0.01948423 -0.2691988 0.07547751 -0.08311926 0.0249979 0.07235206 -0.1095501 -0.1198057 0.1538268 -0.08950023 0.06743193 -0.1445317 -0.0203716 0.0187668 0.003274536 -0.1101479 -0.1350917 -0.1037342 -0.07041248 0.06442969 -0.007177723 0.1003053 0.1127097 0.1109337 -0.147865 -0.05112286 -0.0884639 0.07126848 -0.05540043 0.06148753 0.05083133 -0.01422707 -0.1215623 0.00522139 -0.02698973 -0.1321987 0.0415354 0.1163826 -0.009951725 -0.08465295 0.0360954 0.02608404 0.1402013 0.1437073 0.03423734 -0.07035245 0.02707907 -0.1123329 -0.07604638 0.1874053 -0.06024798 -0.02825756 0.098897 -0.01116649 0.01318448 -0.1644429 0.1629072 0.08872402 0.162995 0.03648276 0.0792219 -0.1072346 0.07185532 -0.0563684 -0.01699905 0.06135015 -0.05316003 0.1177971 0.02921051 -0.03491303 -0.01516324 -0.1643538 -0.03813198 -0.04687233 0.009471092 -0.03468082 -0.04835571 -0.004719099 -0.03570677 -0.0305238 0.0003249328 0.06288946 0.2727032 -0.02830138 0.07520387 0.004349576 0.1518722 -0.01296537 0.01310899 0.04583875 -0.02807977 0.05951129 -0.06706799 -0.08833396 0.00953137 
  0.2169363 -0.06318668 -0.03436945 0.02389867 0.0265489 -0.06223266 -0.02094629 0.01631583 0.08477672 -0.03243537 0.03643996 0.04590432 -0.04746322 0.07886756 0.07104615 0.03991117 0.08464936 0.00692962 0.00902978 -0.09025271 -0.04069165 0.04395377 -0.009334194 0.01280724 0.08377653 -0.07570231 -0.1416408 -0.1844565 -0.1227941 -0.2212578 -0.03092184 0.1492853 -0.07118151 0.0795693 -0.04581518 0.01186008 0.05559736 -0.05605188 0.03980563 -0.1484176 -0.1618632 0.06731249 -0.0005952949 -0.1555472 -0.04681228 -0.02013758 0.04025117 0.09971157 -0.02831919 0.0901921 -0.04360015 0.004381024 -0.004823231 0.009166934 -0.003776946 -0.09036476 -0.09655952 0.04032834 -0.06659697 -0.06699526 0.02433795 -0.05548237 0.002282235 0.1008288 -0.07452106 -0.1908849 -0.05410675 -0.1239213 0.09906115 -0.2212015 -0.02782901 -0.01367384 -0.03333089 0.08686575 -0.01741605 0.0675685 -0.05368195 0.1357526 0.004090995 0.1133137 0.1231756 0.0113972 -0.0019401 -0.1341822 -0.05614391 -0.01016844 0.2182919 -0.01244558 0.07540566 0.03638487 -0.04247012 -0.03240817 0.1186278 0.02087147 -0.05592881 0.1279258 -0.09089316 0.1460753 0.02822586 0.1010253 -0.01193181 -0.1887501 0.06697132 0.02364693 -0.08925416 0.140286 -0.01437986 0.112147 0.1991239 0.05615897 0.1779916 -0.07280974 -0.06816709 0.1393855 -0.0289067 0.01219273 0.05627267 -0.1145716 0.03742918 0.05907595 
  -0.01814873 0.03758451 0.04173573 -0.06945282 -0.05561293 -0.009556176 0.04762125 -0.02146765 0.0149708 0.08114254 -0.09731648 -0.1443752 0.003628635 0.06389193 0.05723422 0.01943548 0.03077204 -0.06855414 -0.1144544 -0.3097512 -0.001738552 -0.02698317 -0.1058648 0.02573548 0.05219715 -0.04800263 0.149494 -0.07308775 -0.1458542 -0.05314606 0.03697096 -0.08387936 0.01150314 0.06509316 0.1032279 0.05357986 0.107239 0.02594841 0.02500351 0.005912856 -0.0005102377 -0.02523411 0.0572929 0.08948157 -0.1140643 0.06471477 0.04361862 -0.0395232 -0.1167395 -0.0184437 0.1035455 0.04336377 0.1269019 -0.134884 -0.1752163 -0.008856831 0.1310081 -0.1765071 0.1696912 0.1254878 -0.09799875 -0.05025216 0.2146609 0.03528025 -0.05192335 0.1355047 -0.2351785 -0.1246507 0.02607551 -0.1309843 0.02708821 0.01309487 0.01258471 -0.02416903 -0.08216281 0.1171471 0.0548774 -0.05997256 -0.02052389 0.02370005 -0.001437798 -0.1883457 -0.08211643 0.07336144 -0.1196322 0.07795981 -0.01851257 0.1730283 0.04438166 -0.03493785 -0.1090335 0.180907 0.009830032 0.07630786 -0.1475386 0.1869906 -0.01952701 -0.01738996 0.05779759 0.03840001 -0.04838241 0.005965494 0.09029176 -0.01298894 0.1583862 -0.1672321 -0.03994247 0.05570387 -0.0810071 -0.1991587 0.0177551 -0.0450202 -0.03512669 0.2271985 0.0949129 0.1485447 0.03735006 -0.07356945 -0.2000735 0.09400138 
  0.0814006 0.1427346 -0.1696346 -0.01153394 -0.01472656 0.01644184 0.01910625 -0.01961517 -0.02451039 -0.05194172 0.07661122 -0.07282617 -0.1738557 0.213433 0.05139396 0.1448814 0.0469697 -0.1854991 0.02302123 -0.0845201 -0.1295806 0.01772967 0.06438003 0.01580319 -0.01672987 0.01463848 -0.1543461 0.1218736 0.02530656 0.01704686 0.01704727 0.04205306 -0.02916693 0.05063144 0.04579049 0.001425768 -0.02360877 0.04086723 0.0431326 0.05406559 -0.1230879 -0.02738066 -0.03143217 -0.07624381 0.1010307 0.1193045 -0.04157438 -0.07306221 0.09803396 -0.004830857 0.06033563 -0.1635454 -0.02209551 0.03774635 -0.09241746 0.1034554 0.1151638 -0.1256781 -0.1005084 -0.06390281 -0.04987868 -0.1237192 0.01531495 0.162459 -0.05439579 -0.01804443 -0.05650099 -0.1617299 0.1071188 -0.01554048 0.005927993 0.05285721 -0.01688329 -0.07973422 0.0303052 -0.2070773 0.1063539 0.0280475 0.09218878 -0.1547583 -0.1114155 0.09206013 0.2017565 0.02578629 0.0656632 -0.08619214 -0.06134137 -0.05002696 0.1194912 0.005649396 0.00144569 -0.06854448 -0.08470575 -0.0475597 0.01275176 -0.2156204 -0.04943647 0.005923594 0.09957594 -0.02215488 -0.07286207 -0.096831 -0.04674978 -0.1678298 -0.01048554 0.1634811 0.1513778 -0.1265285 0.03975393 -0.1516415 -0.06745996 -0.08186014 -0.06265289 0.05041787 -0.08019761 -0.03335836 0.07107461 0.08073366 0.08568784 0.04905599 
  -0.01243141 -0.007751091 -0.1250277 0.10863 0.002054086 0.05705264 -0.2656842 0.07805226 -0.04260925 0.1999169 -0.009632154 -0.02394141 0.02793015 0.06961291 -0.1228611 -0.1377046 -0.003885157 -0.01196746 -0.02315241 0.08894236 -0.09279259 -0.07619167 -0.2182294 -0.03118672 0.07336389 -0.04676476 0.09127403 0.03795404 0.0113831 -0.0701443 -0.1539668 -0.1186931 0.06926274 -0.05272438 -0.1311229 0.005500751 -0.03429304 -0.04703828 -0.195342 -0.01315614 -0.1370407 -0.1267329 0.0004993715 0.03317646 0.01977167 -0.006096452 -0.0710253 -0.03919639 0.08818903 0.04272849 -0.003562018 -0.02853919 0.01944752 0.1029107 -0.08519803 0.04349927 -0.05976349 0.08006346 -0.1199083 -0.1642217 0.07038306 -0.07227826 -0.3235664 0.01814972 -0.01822069 -0.08497764 -0.1150897 -0.06252773 -0.00919234 0.06770767 -0.03344976 -0.03110139 -0.1110679 -0.145526 -0.1144951 -0.01432139 0.03019095 -0.1422505 -0.1219021 -0.1021787 0.02842873 -0.01767596 -0.2755529 0.06545226 0.06262577 -0.09174679 0.03046866 -0.122991 -0.09468879 -0.1009872 0.02613166 -0.008143828 0.06907053 0.01083034 -0.1112668 -0.04271175 -0.03403173 0.05856431 -0.03585084 -0.04722197 0.1159533 0.06440625 0.120378 -0.0211642 0.0672167 0.01146908 0.009343795 -0.008348365 0.1575866 0.03053667 -0.02112723 0.0753753 -0.001680454 0.08818205 0.009673826 0.182453 0.01788998 0.0661748 -0.1400124 -0.04988651 
  0.07719562 0.1116963 0.09909374 0.07063428 -0.03830648 0.07071971 0.1583142 0.1537543 -0.1433903 -0.0305273 0.01724632 0.05361132 -0.05781322 -0.0194026 -0.0110912 0.1567508 0.1604202 -0.08707579 0.01870805 0.09875394 -0.04948432 -0.01319875 -0.03589697 -0.09834051 -0.05621827 -0.06138375 -0.07053243 0.1489843 -0.1376325 -0.02641013 0.05251912 0.0879833 0.05448922 -0.09508883 -0.03331414 -0.1635213 -0.1265025 0.1151572 0.216305 1.409028e-05 -0.02247758 -0.01642482 0.0102578 0.2513335 -0.03208372 -0.04797163 -0.05518976 -0.1123158 0.03803894 -0.002936332 0.07610714 -0.05114809 -0.03299766 -0.05417428 -0.06419247 0.06134681 0.08601768 0.05000421 -0.09511137 0.02805671 -0.09092788 -0.02022347 -0.01682544 -0.00657672 0.1500519 0.07906993 0.09637401 -0.03800798 -0.0207416 0.09588615 -0.1873088 -0.01023649 -0.0912483 0.1933929 -0.02025951 0.1041042 0.06037947 -0.06733977 0.09817107 -0.06077752 -0.1171623 0.09923166 0.07621332 -0.1593899 0.008422386 0.2006431 -0.1012303 0.06069127 0.08552986 0.1074488 0.1656618 -0.1274755 -0.0909639 0.03314815 0.01647542 0.03550467 0.04221264 -0.135112 -0.136503 0.109149 -0.05504249 -0.05908266 -0.1182612 0.0282625 0.1265142 -0.0177523 -0.01676232 0.03837408 0.02504647 0.03742671 0.06390412 0.09519561 0.01340148 -0.06631675 -0.04438587 0.06628118 -0.09034774 -0.09707443 -0.03150077 0.03538008 
  0.06117104 -0.08995604 -0.1536165 0.1120126 0.07759649 -0.008697117 0.1818034 -0.03407376 -0.125923 0.08588239 0.03728425 0.1306061 -0.05185417 -0.00669811 0.03908828 0.0821383 -0.1107433 0.1362654 0.08347175 -0.1123172 0.05253826 -0.0008968462 0.02208293 0.01635884 -0.04315733 0.07959604 -0.1025095 0.1342267 -0.04056947 -0.07566125 -0.04120238 0.1217966 -0.0316629 -0.2034067 0.01932826 0.09892029 -0.02542179 0.02712434 -0.02399333 0.02577191 0.01361666 -0.03592829 0.0648104 0.003045621 -0.03736004 -0.01218199 -0.04420642 0.006719801 -0.00285365 -0.1692492 0.1038674 -0.08221751 -0.1056001 0.1237185 0.2759626 -0.1097742 -0.04300442 -0.1082194 0.02309741 0.1815213 -0.02173609 -0.09644829 0.01218332 -0.05056231 0.0386204 -0.08325654 0.05684858 0.04664437 -0.03676514 0.06626392 -0.08072923 0.1722593 -0.06733482 0.03851026 0.06420507 -0.03180627 0.06832956 -0.1498797 -0.01806112 -0.03173039 0.06802783 -0.03219677 0.1723174 -0.06262282 -0.02741699 -0.1717363 -0.1140854 0.1352829 0.1223965 0.01938931 0.06042046 -0.08283478 -0.1343489 -0.1068603 0.05494019 -0.04542053 -0.1079992 -0.1717439 -0.04628278 0.09440427 0.2259316 0.1384035 -0.001139611 0.01525045 0.06842566 0.08552637 -0.02552349 -0.01702988 0.08981226 -0.04828411 -0.03926431 -0.01897131 0.03836453 0.09665045 0.1463852 0.008119918 0.1109595 0.04154364 -0.1075236 -0.04217256 
  0.186997 -0.006683925 -0.04112855 -0.02769744 -0.07004853 -0.1999308 0.01229507 0.02388831 -0.0520526 0.2231327 -0.1091957 -0.09494853 -0.09272982 0.1080945 0.08606082 0.1016308 -0.06350146 0.04872218 0.05661158 0.06422973 0.1447493 -0.03795959 -0.1119885 -0.002726258 -0.01790764 0.04197793 -0.03747737 -0.02399799 0.07785192 -0.1399645 0.01888102 0.1145283 0.003132078 -0.06775364 -0.1027731 0.1594021 0.06631681 -0.1187902 -0.008485718 -0.03151634 0.01345487 0.1070824 0.003640798 0.04297675 -0.07692088 0.07299716 -0.08321063 0.06998644 0.1471682 0.08756257 0.04038611 0.08774062 -0.1603177 -0.02795872 -0.01070966 0.05385235 -0.08392222 -0.05095563 -0.0329682 -0.08867549 0.1572685 0.01963831 -0.1584038 -0.04795592 0.0278439 -0.004284516 -0.06357453 0.01255436 -0.06359871 0.07935133 0.08566105 0.03271628 -0.0232139 -0.004201421 0.07150885 -0.02572963 0.1211099 -0.1476268 0.1512519 -0.04245157 -0.09499836 -0.09059243 0.01579305 -0.01882782 -0.01249568 -0.07635579 0.01607487 0.08191989 0.01522494 -0.05417345 0.04794016 -0.09983633 0.06850427 0.04759438 0.02918597 0.1510499 0.01868236 -0.04852127 0.03414919 -0.04262726 0.04631636 0.04595763 -0.03065803 0.123231 -0.02394674 -0.1092601 0.09416415 -0.004178468 0.2136039 0.03496873 -0.01031804 0.05070624 0.1597067 -0.09436265 0.03214402 -0.0925617 0.05766968 0.07688673 0.1245404 0.1412614 
  0.02183287 0.1132144 0.1660373 -0.02394497 0.1523244 0.03262527 -0.07825264 0.03515574 0.1716377 -0.1002688 0.04806831 -0.04240779 -0.08804394 0.01160766 0.1621302 -0.03254329 0.04750968 -0.0909821 0.0284765 0.03184393 -0.0474354 -0.03493622 -0.0597736 0.1620815 -0.03313664 0.0325871 0.06030162 0.06940077 0.1373184 -0.1058799 -0.02456941 0.03607893 -0.04510741 -0.06234244 -0.02934367 -0.05071216 -0.05774171 0.1676786 0.02191089 -0.0208224 -0.05418925 0.01468366 -0.08360144 0.03869839 -0.02052771 0.1723698 0.0584773 0.09572694 -0.1385105 0.1043264 -0.07712168 -0.0750982 0.04871379 -0.1279781 -0.1099711 0.01969995 0.09162847 -0.05427412 -0.0568643 0.003799472 -0.1298859 -0.05587076 -0.08963866 -0.1527178 -0.09039342 0.09714555 0.0140467 -0.01117986 0.135355 -0.1297172 -0.0008483068 -0.1626752 0.06398568 0.04359954 0.0448332 -0.0454595 0.01016726 -0.01556464 -0.1695405 0.06875179 -0.04239742 0.0102735 0.01604402 0.0660855 -0.1505812 0.1617612 -0.01832544 -0.09493057 0.1142664 -0.04473207 0.1131107 -0.006141532 -0.002992131 0.1383729 -0.08176163 0.04974933 0.04285635 0.07118349 0.03305828 0.05176775 0.01567845 0.1314656 -0.002311761 -0.02354369 0.05220199 -0.004137784 0.1159465 0.07599055 0.1698976 0.05039109 0.0582214 -0.06901383 -0.06740609 -0.02512697 0.05618415 0.0850035 -0.02701503 -0.001312133 -0.06743474 0.004091326 
  -0.07400701 0.0846405 -0.02021454 0.1483952 -0.2138755 -0.08333518 -0.1098149 0.07666228 -0.05024647 0.1112554 -0.04555787 0.008410313 -0.05167492 0.0866505 0.142592 0.02447991 0.01028349 -0.03488781 -0.07729736 0.01651652 0.02072836 0.1476752 0.0554575 -0.0003895462 -0.03423688 -0.158425 0.03999083 0.1592536 0.1024226 -0.03646013 -0.007690923 -0.05258864 -0.1640698 -0.1137044 -0.1109136 0.02931188 -0.05199219 -0.02838194 0.1796591 -0.05417907 -0.03709648 -0.03304028 -0.06524142 0.1177224 -0.02079628 -0.03418687 -0.03112095 0.06906658 -0.09139773 -0.1909914 0.0314794 -0.03183163 0.01100473 0.1237351 0.1383868 -0.08021208 -0.1338658 0.02105794 -0.06369955 -0.06538247 0.07460538 -0.0501787 0.1277572 -0.137255 -0.1649645 -0.04995104 0.02684949 0.05832857 0.09793482 -0.06008246 0.1451004 -0.1370024 -0.03512843 0.05180571 -0.002922111 -0.06331634 0.06854887 0.1628279 0.04192582 -0.1373955 -0.01059422 0.03402475 -0.04256777 -0.1157272 -0.1598505 0.09094614 0.0332751 0.07097208 0.05999611 -0.06398397 0.09909174 0.1578806 0.04877713 0.0409905 0.07892723 -0.09650773 -0.1406158 -0.1401916 -0.1003274 -0.04633952 -0.07932969 -0.1169197 -0.03498968 0.0003444655 -0.02739515 0.1099573 0.03288979 0.1302923 -0.07955236 0.07570466 0.05210756 0.07998218 0.03307883 -0.07919787 0.05477312 -0.1490851 -0.07217479 -0.06840498 0.04965801 -0.06198807 
  -0.1725446 0.07558839 0.08275202 0.03557305 0.005952015 -0.0271148 0.01653022 0.01955497 -0.003507637 -0.06703284 7.258172e-05 0.1434422 -0.1379137 0.09318719 -0.04181445 -0.04228433 -0.00899873 -0.08453646 -0.006392721 -0.09087828 0.02076539 0.08837446 -0.07432025 -0.04785614 0.0369075 -0.03321496 -0.04709905 -0.02936926 0.05397363 0.1444867 -0.1869283 -0.01690771 0.03864106 0.1324897 0.09710108 0.06474256 -0.05685757 -0.07542595 -0.05245938 -0.07118411 -0.03392253 0.09074175 -0.06988887 0.09192275 -0.008085186 0.1153672 -0.107547 -0.05808853 -0.08721554 0.02073429 0.03738555 -0.06602606 0.0379076 0.06078951 0.004037756 -0.01670326 -0.03458398 -0.06369373 0.138809 -0.07604493 0.1453856 -0.01665669 0.0242181 0.1167611 -0.03313499 -0.1484861 -0.1125765 -0.0005859932 0.07745799 -0.04036805 0.03829536 -0.06914224 0.01464192 0.121371 -0.07765391 -0.003884305 0.01691886 -0.03621565 0.01926994 0.03701926 0.01512367 -0.1806863 -0.151581 0.007572162 0.03225871 0.09153283 0.07185563 -0.02847225 0.02234974 -0.03834254 0.01935472 0.04127229 -0.07762314 0.1321692 -0.1013609 -0.02127448 0.1186761 0.00141461 0.2119222 0.05497856 -0.05078804 0.08543678 -0.02130487 -0.02145104 0.07194544 -0.03756608 0.08175161 -0.1238659 0.01769804 0.03699053 -0.003787005 -0.0246078 -0.09646042 0.05328902 0.02123507 0.1303234 0.03481156 -0.1342189 -0.009895348 -0.1362209 
  -0.1074967 -0.02328598 0.001003624 0.06093837 0.1276691 0.09232123 -0.05204564 -0.00889342 -0.03763448 -0.02694187 0.2047719 -0.04456491 0.1112379 0.08639079 -0.07546574 0.01167713 -0.04212743 0.1438291 0.04126724 -0.003226908 0.1370071 -0.05755692 0.06205594 0.02143242 -0.0249882 -0.1178402 0.08721159 0.01808511 0.06893035 -0.03967239 -0.02711857 0.02711332 -0.1581398 0.07401431 -0.1133188 -0.0006696957 -0.04312509 -0.04274439 0.01407501 -0.138521 -0.1819596 -0.04974522 0.04611454 0.009510398 0.1285796 -0.03635155 -0.02924088 0.06055417 0.004036218 -0.09778596 0.04893711 0.02289573 0.0502065 0.1269077 -0.3099002 0.05668348 -0.1486275 0.0591229 -0.1492913 0.08188817 0.04367362 0.01365496 -0.2515853 -0.06693972 -0.08700103 -0.1967345 0.02121872 -0.04574849 0.008321183 -0.2198583 -0.05412386 0.1206627 -0.1162215 0.1282607 -0.1353546 0.006020924 0.06792159 0.05652571 -0.09487049 -0.07373594 0.02296712 0.1089631 -0.0112563 -0.05701692 -0.03670156 -0.008759214 0.01598908 -0.05322392 0.06041402 -0.06087476 -0.06859843 0.05571062 0.04984798 0.0749732 -0.07189693 0.03474119 0.05256017 -0.01570618 -0.09682075 -0.05450137 0.05351894 -0.08106987 -0.0009707503 -0.0447676 0.07892474 0.06321092 0.04856871 0.03559734 -0.02337106 0.08769079 -0.01265169 0.1099102 0.106483 0.06507713 0.192321 0.08185561 0.1140911 0.05880274 -0.01953138 0.02834807 
  0.007514559 -0.02068941 -0.192266 0.06214262 -0.0439968 -0.1951759 -0.01621878 -0.1124742 -0.07238667 0.05183882 -0.07036247 -0.1217676 -0.01325449 -0.1192226 0.09708679 0.09072809 -0.04589541 0.1417041 0.1343206 0.1134332 -0.02779616 -0.1485864 0.001351555 -0.154057 -0.02681404 0.1590912 -0.01311879 -0.1324298 -0.08544467 0.05948959 0.1014469 -0.04364643 -0.02263769 -0.002520688 -0.1388922 -0.1014439 -0.08670902 -0.2465605 -0.08403594 -0.08968621 -0.08333857 -0.1951372 -0.05308571 0.01584597 0.02274136 -0.1625999 0.08390077 0.001808156 0.05067553 -0.006633143 -0.01185613 0.06814711 0.1939998 0.1861188 0.1068458 -0.002591656 0.04573946 0.1297759 0.02974459 -0.03704023 -0.05748287 -0.05196454 0.1292799 -0.1194521 0.01178424 -0.03855393 -0.007313825 0.01065598 -0.08299502 -0.04079479 0.1005063 -0.1896442 0.1356788 -0.02773142 0.09854498 -0.2044065 0.006459611 -0.0165757 -0.1506501 0.03355118 -0.0579157 -0.1226692 0.06961177 -0.09196593 -0.01096714 -0.05180713 -0.09076529 0.03301512 0.003173765 -0.08915318 0.1145442 0.04885937 -0.02877258 0.06607399 0.1839884 -0.0002629023 0.08947688 -0.04321238 -0.06374345 -0.1627053 -0.04114186 0.09191469 -0.1089455 -0.00796596 0.2226657 -0.1459451 0.07005723 0.09491248 0.04667916 0.1234741 0.2245001 0.1062599 -0.1481214 0.06098492 -0.07464286 -0.04923797 0.02106573 0.1608011 0.1493815 0.03579785 
  -0.07093551 0.08023062 -0.1774786 0.02047055 -0.02212721 -0.01507232 -0.1591695 -0.1278168 -0.05601491 -0.1601031 0.04012651 0.04743998 -0.1768007 0.1240141 -0.1091316 0.1117361 -0.0719154 -0.1209547 -0.006126156 0.01441281 0.0146707 -0.1243411 0.08834705 -0.07760847 0.02451046 -0.1009228 7.856351e-05 -0.1880764 0.1607467 -0.1498835 0.01221432 0.05637346 0.04555271 -0.01967292 -0.003088523 -0.04807652 0.1527504 0.05465314 -0.1658905 -0.02296643 -0.07582046 0.06471881 -0.03714736 -0.1004198 0.01604511 -0.04843305 -0.1058508 -0.08191527 0.04453861 -0.03260799 -0.05429712 -0.1575282 0.06026565 -0.05257317 -0.1222403 0.01738398 0.006093734 -0.06434475 0.1218608 0.0659754 -0.04142136 0.03250912 0.1727967 -0.09108686 0.1405948 -0.1402341 0.05951213 -0.01239313 0.0151911 -0.05733819 0.1767784 0.06659857 0.006935135 -0.03101544 0.07795486 -0.09546071 0.1820154 -0.01670193 0.1021674 -0.07819851 0.009988151 -0.06974759 0.1063666 0.2141827 -0.1094532 0.08832119 0.1135654 -0.07033861 0.005858668 -0.003974335 0.1040706 -0.1820954 0.1012254 -0.004597048 -0.1026456 -0.0718986 0.1637696 0.1133203 0.0215965 -0.07744727 -0.07548141 0.05299998 0.2175171 0.04416635 0.08498388 0.1681758 -0.1240141 -0.14932 0.08234187 -0.03976264 -0.1198637 0.04748513 0.07546032 -0.02775366 0.2070626 0.2235262 -0.03538489 -0.03942779 0.00583424 -0.1664618 
  0.003985216 0.07695959 0.007008985 -0.06904861 -0.07524773 0.05571996 0.04490411 0.1000923 0.1512966 0.007512156 -0.04033728 0.05807493 0.03948392 -0.003349158 0.005894004 -0.08197457 -0.07291456 0.109697 -0.07142961 -0.01789659 0.08856622 0.06733518 0.04002965 -0.01963213 -0.05672796 -0.02838247 -0.1855081 0.07385431 -0.1224014 0.0319879 0.1153696 0.05893705 -0.01533959 0.03712806 0.1082936 0.1189715 0.01379481 -0.02337903 0.05741757 0.05374623 -0.1116488 -0.01462349 -0.002437203 0.0729532 0.06123246 0.07488162 0.1683833 0.07017955 -0.1083554 -0.05455886 -0.04453624 -0.0181026 -0.1144 0.01312428 -0.01860556 -0.006004511 -0.03322908 0.06832872 -0.06328449 0.007509642 0.02236423 0.1052183 -0.05660419 0.02399782 0.1067328 0.1467969 -0.02234575 -0.0523848 0.196205 0.02927427 -0.03549996 0.04896308 0.1763785 0.05088566 -0.02814419 -0.03838226 0.03768874 -0.008923082 -0.001244208 0.1822092 -0.05554564 -0.07945684 0.02081791 0.08038937 -0.06893805 -0.01593922 0.1666335 -0.002090834 -0.05451828 0.07640211 0.1395467 0.1578658 0.002488084 -0.1461493 0.03297332 -0.02189169 -0.03132507 0.1174717 -0.04923056 -0.1050457 0.00969745 0.02368834 -0.07349179 0.170739 -0.1797722 0.01166066 0.02066423 0.03126456 0.06224479 0.02048906 0.03270881 0.04188801 0.06222816 -0.07008461 -0.07570666 0.005218131 0.01248864 0.2234132 -0.09393888 0.02152612 
  -0.08189521 0.190141 0.02143336 -0.1155995 -0.1224699 0.07142219 0.08304535 0.02783251 0.01955783 -0.1511741 0.07948114 -0.08484333 0.2522492 0.08291161 0.1094362 -0.03192083 -0.004390883 0.04338861 0.1625332 -0.1067514 -0.1108419 -0.0007297423 0.03155439 0.01203159 0.06976803 -0.001970675 0.1525038 -0.1072785 0.08628778 0.03857218 -0.05128317 -0.06151187 -0.1009434 0.09605277 -0.01273896 0.04591518 0.08040035 0.0281049 0.1166616 -0.04827572 0.05872751 0.05756273 -0.07976126 -0.004307751 0.08091586 -0.1395221 -0.04511172 -0.1892337 -0.0312292 0.1433382 -0.1705018 -0.03266796 0.04219884 -0.02582396 0.03412072 -0.08870672 -0.02865292 0.05256034 -0.09967939 0.02953928 0.2187986 -0.01697332 -0.02165887 -0.0955466 0.009301881 0.03050042 0.04579286 0.01670742 0.04118895 0.003348291 0.1338362 0.1454581 -0.1250983 0.1113007 -0.06086039 0.08466173 -0.01813597 0.2914029 -0.04940204 -0.009103579 0.0758048 -0.02288108 0.07733758 0.10989 -0.1109509 0.1008712 -0.0265556 -0.1099312 -0.1341524 -0.1886251 -0.1553562 -0.2083467 -0.08130352 0.01255193 -0.04893724 0.0446583 0.18157 -0.06387122 0.1155019 -0.04060729 0.1118757 0.1390675 -0.05185776 -0.1573179 0.04774299 0.02990569 -0.03413485 -0.04527426 -0.1234301 -0.04285533 0.1373721 -0.2005542 0.1008809 0.2330952 -0.1070549 0.07253242 -0.1074237 -0.005916366 -0.05844124 -0.03524072 
  0.002252618 0.1594674 -0.1580494 0.01203594 -0.1860517 -0.004556912 0.06614294 -0.1144097 -0.01317204 0.1133651 -0.009622655 0.01467874 0.006018389 -0.02383114 0.02393035 0.08919036 -0.02746101 0.1907887 0.01513128 0.02245907 -0.06696027 0.02923075 -0.09698862 -0.07332908 -0.06220247 0.05247229 -0.0947512 0.05554225 -0.02956114 0.0250924 -0.005023667 -0.1829587 0.07475513 -0.05211867 -0.1509922 0.02138155 -0.08295831 -0.02365264 0.002765051 -0.05012685 -0.08834584 0.1601676 0.06758358 0.06743217 0.03713731 -0.1117569 -0.01183305 -0.06954976 -0.2202427 0.04153103 0.04454216 0.04635085 0.1496927 0.152975 0.004978532 0.1397905 -0.1006676 0.01682119 0.04585645 -0.1087726 -0.09885883 -0.09170199 0.06541182 0.003467734 0.01491362 -0.01056367 -0.05445324 -0.05241264 -0.03462619 -0.01621613 -0.07863107 0.1074377 0.01671903 -0.06155674 -0.03773726 -0.0695169 -0.1779088 -0.02963357 0.03818667 -0.09281401 -0.0350475 -0.1681651 -0.03515848 0.07554783 -0.03375015 0.04420179 -0.02618908 -0.1007893 0.1763874 -0.2369011 -0.01604069 -0.1144148 -0.05990781 0.187623 -0.04857577 -0.1230877 0.0899187 0.01739101 -0.06555879 0.03402323 0.164662 0.05704826 -0.03999873 0.124267 0.03888411 -0.0922258 0.091069 -0.1099207 0.06432799 -0.1607208 -0.1133949 -0.02970176 -0.1038507 -0.03310791 0.1136544 -0.01240225 -0.008898316 0.01459698 -0.1232461 0.04821043 
  -0.01838004 0.008300634 0.03453733 -0.1435826 0.2385729 0.03974457 -0.1812992 -0.1448134 -0.1360268 -0.06751501 0.0327023 -0.02811108 0.1988439 -0.04183201 0.008395537 -0.02725704 0.1960984 0.07087615 0.03969327 0.01908844 0.2001342 0.005069591 -0.1316969 0.02020838 0.1029883 -0.0001228028 0.07084221 -0.07366633 0.006132502 -0.01900727 -0.0672904 0.06422497 -0.03765 -0.03807325 0.1327642 0.1249949 0.09022625 -0.06766787 0.09289134 0.04850059 -0.06716774 0.1528237 -0.1327593 -0.01324782 0.009559613 -0.04324323 -0.07895904 -0.01806881 -0.04704381 -0.09588791 0.04566565 0.1041079 0.007724606 -0.002367487 -0.03228766 -0.07183556 -0.1110369 -0.08596893 0.003648627 0.06789284 0.06444963 -0.01448217 0.09635066 -0.02139875 -0.05857819 0.09047498 -0.03954197 0.04990377 -0.1543991 -0.01061453 0.02223541 -0.01342593 -0.1617357 -0.04468047 -0.03159796 0.07347007 -0.1432955 0.02069242 -0.02636555 -0.09200959 -0.05901077 0.09266821 -0.09592313 -0.04998945 0.1127591 0.003568415 -0.01596637 -0.1226578 -0.1083422 0.07848132 0.06139727 -0.09035822 -0.05441118 -0.01921714 0.1472409 0.1807625 0.1339911 -0.00801011 -0.08133502 -0.0812019 0.07861682 -0.0183013 -0.2099545 0.09003896 0.1022523 0.02627071 0.05707685 -0.2459589 -0.1102177 -0.01306811 0.1608208 -0.0008655274 0.05106357 0.1673003 0.0117818 0.0122004 0.0948564 0.005182263 -0.01767867 -0.03807964 
  0.07376135 -0.04059197 0.08618799 -0.03660699 0.05161622 -0.1973298 -0.07847622 0.1091948 -0.1491313 0.01654145 -0.04347894 -0.01514517 0.05490822 -0.07135769 -0.03037749 0.008121614 0.02691405 0.01756686 0.0179295 -0.007680873 0.1254843 -0.1154304 -0.06901994 -0.05478367 0.1531366 -0.0764401 0.02552285 0.1190449 -0.01323426 0.03330548 0.1500554 0.1151531 0.02057226 0.06390605 -0.0143798 0.1180836 -0.2104891 0.1584467 -0.1475353 -0.02829025 0.01210452 0.08348731 -0.01936622 0.139149 -0.02332719 0.123945 -0.04065086 0.1288518 -0.07116312 0.007103494 -0.00851624 0.08258767 0.09212966 0.02237984 0.02372487 0.1254449 -0.03903049 -0.07179432 -0.01164311 -0.06543638 0.00513994 -0.09517927 0.1019524 0.04457607 0.0127073 -0.07786787 0.04044189 0.02869314 -0.07887193 -0.05449081 0.1393339 0.1387623 0.07969161 0.0913458 -0.09471375 0.06108391 0.03022329 -0.04927805 0.01763631 -0.1235496 -0.08158173 -0.0008468 0.01574355 -0.07737417 0.1181921 -0.02970286 0.1040898 0.02075254 0.1174025 0.08116277 0.1000589 0.01441121 -0.05643217 -0.1771546 0.0278396 0.03030343 -0.01222034 -0.02655137 0.06652083 0.1345458 0.1216444 0.1017706 0.07418885 0.03765099 -0.02393208 -0.02205843 0.07675773 0.05095292 -0.1075215 -0.1082676 0.01998407 0.05846293 0.2421713 -0.1153676 0.1715165 -0.01437942 0.03554261 0.03464921 -0.01099327 -0.09544396 
  -0.1081272 0.125815 0.07385524 -0.0009467754 0.0850196 -0.008172811 -0.03843134 0.04157654 -0.09300799 0.02846943 0.006264025 -0.1104844 0.02078271 0.03426212 0.0669269 -0.1379664 -0.1623698 -0.09472682 0.1110215 -0.03280962 0.005458558 0.1066683 -0.05695783 0.0479669 0.09661689 0.03352097 0.05540473 -0.0492133 -0.08503429 0.00208088 -0.08805041 -0.006286323 0.1995448 0.2139355 0.06108249 0.01036706 0.07104645 -0.01937563 -0.09613089 0.1438808 0.1534943 0.1541753 -0.0362056 -0.02580893 -0.1967147 0.02906361 -0.03020931 0.07905168 -0.1237573 0.0452127 0.1114844 0.1050826 0.007854097 -0.03641826 -0.02861005 -0.04702764 -0.05873025 -0.08957417 0.1142039 -0.01484386 -0.02027388 -0.007205536 0.1477983 0.06212614 -0.04256279 -0.01700345 0.06901554 -0.005696947 -0.1151262 0.02340093 0.09506258 0.09144024 0.01220618 0.1155342 0.1261333 -0.04172048 -0.01039985 0.07108007 0.1663051 -0.02802258 0.07976568 0.06432551 0.01319881 0.071137 0.07952084 -0.1106473 0.07131775 -0.1176782 0.07792987 0.01381997 -0.002871561 0.01880227 -0.01257614 0.1000979 -0.1108056 -0.0591214 -0.04265287 0.1048367 -0.01177008 0.2072337 0.08356851 -0.09759883 -0.01783468 0.1385979 0.05844058 -0.1413907 -0.1455546 -0.06338935 -0.02261621 0.1424762 0.00539459 -0.08662173 0.2206837 -0.01921959 -0.1345085 0.1197159 -0.2115096 -0.04768113 0.007478029 0.05047578 
  0.124301 -0.04100932 -0.01877584 0.1197224 0.07305481 0.06394513 -0.00162666 -0.07714934 -0.04119257 -0.0115961 -0.01230738 -0.06657302 0.09091321 -0.006000448 0.06949785 -0.0892817 -0.08862913 0.06633554 -0.03985262 -0.1221487 -0.02070237 -0.07272204 0.1071721 0.08754702 0.05935575 -0.004254064 0.01035697 0.158237 -0.02783723 0.01093602 -0.05387614 -0.07274894 -0.03828253 -0.1396069 0.1277197 -0.01351449 0.0636125 0.02593946 0.01182533 -0.1634754 0.04965676 -0.02787124 0.001989669 -0.1434247 0.023924 0.06855514 -0.0662536 0.02444392 0.08133463 0.01252771 0.1353257 0.1091333 -0.02693075 0.1107332 0.2427166 -0.05860767 -0.1633096 -0.02658772 0.1408391 -0.08233944 -0.07255883 -0.1165923 -0.1299187 0.07198918 0.06107809 0.03693433 0.02025392 -0.0139825 -0.1212829 -0.07084262 -0.04546902 0.108161 -0.1034002 -0.07066 0.01012473 0.08295742 -0.02832094 0.05081946 0.07826068 0.05758936 0.008090243 0.05588367 0.1097089 0.03044882 0.004223142 0.108622 0.01475012 -0.2177898 -0.194305 -0.008873748 0.0544797 0.01465153 0.07421962 -0.249472 -0.005603908 0.007200207 -0.07654375 0.07901163 0.05816931 0.01567523 -0.01919881 -0.02793391 -0.09363015 -0.06271984 0.01476735 0.1532294 -0.1293261 -0.03016675 -0.006426117 -0.1148855 -0.03820683 0.02999914 0.1070748 0.02900043 -0.005083963 0.08870088 -0.04264762 0.1423915 -0.1501669 0.05306079 
  -0.01907431 0.02856475 -0.00332958 -0.1360044 0.1214518 -0.04583119 0.01593641 -0.1104616 -0.03628109 0.05000458 0.2330852 -0.1698658 -0.001718936 -0.05328829 -0.01514433 0.05266506 0.1041811 -0.002858046 -0.1265516 -0.03922448 -0.01079732 0.07348542 -0.1628182 0.1352709 0.08602376 0.002032443 0.1046542 0.006691665 -0.03513528 -0.06196104 -0.05777362 0.01489672 0.09047191 -0.0326511 -0.06228437 -0.0969215 -0.05264691 -0.1565095 -0.04656317 0.003371173 -0.03927812 0.1100729 -0.1670246 0.01920332 0.03323368 -0.06234522 -0.07292964 -0.05767478 -0.04587643 -0.01170717 -0.1102748 -0.1393805 -0.02756808 0.1624138 -0.1120038 -0.1635304 0.03294224 0.04364705 0.1018094 0.03227023 0.1132466 0.06364802 -0.003888241 -0.08818357 -0.02084399 -0.1177577 0.0991013 -0.06527721 0.02852438 0.04537869 0.01903246 -0.04163171 0.07810663 0.01021416 -0.02999824 0.1116768 -0.03932574 0.03832641 0.0253112 0.1397667 0.1145253 0.01941637 -0.0207947 -0.06771575 -0.01872238 -0.0132143 -0.002825823 0.1282937 0.2041983 0.01038866 -0.07833115 -0.08469848 0.01107289 -0.1948867 -0.001607603 -0.02025782 -0.1102977 -0.06414068 0.2276162 0.21816 0.1639892 -0.07989288 -0.07261313 -0.03928648 0.03003547 -0.136202 -0.0607188 0.1048282 -0.03654833 0.04179066 -0.005150494 0.009323288 0.03468811 0.03102996 0.07235333 0.05566008 -0.07699058 -0.045801 0.001597556 -0.05614828 
  -0.03082486 -0.02921805 -0.07448116 -0.004389131 -0.1086327 0.05585312 -0.06266177 0.05588018 0.05262116 -0.02031854 -0.1105328 0.05155515 0.09962126 0.07014538 0.03597194 0.02157149 -0.07026292 0.06528244 0.1258106 0.1067205 -0.002681485 0.03260722 -0.1101396 -0.1105043 0.1355603 -0.02663859 -0.01023313 -0.07044496 0.1349878 0.08111589 0.007539209 0.04426858 -0.1399411 -0.01859555 0.1604503 -0.06543142 -0.04671269 0.1465806 0.01704409 0.01695835 -0.02335928 -0.07867461 -0.1222252 0.02933243 -0.01111258 0.1075121 0.03697804 0.05608615 0.1256396 0.08463293 -0.0838085 -0.08961907 0.04793073 0.0140286 -0.06212303 0.2038485 0.004379577 0.1219111 0.08451347 -0.02756844 -0.1212747 0.04111698 0.01640463 0.1103292 -0.002030055 -0.05788187 -0.08212012 -0.1535041 0.1713486 0.1355015 0.06111224 -0.04443761 -0.02876673 0.1396842 -0.09704147 0.1399362 -0.07138827 -0.01496155 0.02666786 0.02167216 -0.02211878 -0.08791858 -0.1372462 0.1106579 0.02425459 0.05446963 0.221332 0.0524767 0.1132021 0.0863556 -0.08809955 -0.1243328 -0.1782894 -0.02141992 0.1259512 -0.2298993 0.05182968 -0.1010435 0.09428106 -0.02244501 0.05338196 0.0247192 0.0961348 0.136973 -0.07845178 -0.04772352 -0.02535416 -0.1026373 -0.03386622 0.001085568 0.003899698 -0.09531119 -0.1197509 -0.01122309 -0.1762352 0.1258423 -0.06404093 -0.08900893 0.154754 0.0370749 
  0.02416622 0.08530287 0.04598022 0.1887316 -0.1140483 -0.1496233 -0.09449883 -0.06915458 0.02081694 -0.06539266 -0.06336534 -0.028077 0.0206021 -0.0131463 0.07347619 -0.1473406 0.0150745 0.002670011 -0.03397638 -0.0803604 0.0001726035 0.1156874 -0.109486 0.06306282 -0.007603397 0.02822343 0.0818775 0.1328131 0.1707437 -0.09423295 0.1802849 -0.0130536 -0.02384339 -0.09908106 -0.1694582 -0.01038559 -0.05575736 -0.1137641 -0.1363831 -0.105117 0.02283421 0.07143255 -0.008744307 -0.09678654 0.06564446 -0.09070713 -0.1387219 0.1834269 -0.1336913 -0.01260035 0.1177835 -0.08546324 -0.1539288 0.1197468 0.08689514 -0.05789783 -0.01051505 0.02000004 -0.06263857 -0.1301824 0.1262753 -0.0303018 0.04361605 0.02488439 -0.01651323 0.07877591 0.0238392 -0.01272342 0.1024084 -0.02598274 -0.1548891 0.09997037 0.04565144 0.0199417 0.01994303 0.1244505 -0.04749202 -0.04118379 -0.04168268 -0.09527376 -0.2117922 0.05720017 -0.07803185 0.009013465 0.1541827 0.02763443 -0.07989886 -0.02147351 -0.05746394 0.03875062 -0.1295573 0.03868589 -0.001903494 0.1111959 0.03546924 0.002292217 0.1462348 0.07696206 -0.05688135 0.1037575 -0.05165394 0.07774558 0.06089443 0.03299145 0.144086 -0.06902516 -0.04972368 0.2064651 -0.04186736 0.02198533 -0.001446637 0.03235079 0.02767853 -0.2380845 0.08557728 0.03393712 -0.001603688 -0.08323261 0.008288837 0.009857541 
  0.08346862 -0.2006952 -0.01333259 0.000590928 0.01403341 -0.1776344 0.1214459 -0.02794279 0.002367075 -0.07268301 0.1539004 0.1289442 0.07522427 0.1435397 0.01170036 0.02585433 0.06522233 -0.1264291 -0.00893796 -0.01866895 0.1677661 0.001207908 0.1979736 0.01720621 0.05074242 -0.06578486 0.01306259 -0.1509364 -0.0429342 -0.05883885 0.1694278 0.01563124 -0.08632693 0.1497022 -0.0391367 0.1233934 0.09188158 -0.02103959 -0.03927543 -0.04427332 -0.1180631 0.01663541 0.02331412 0.02994704 -0.03464345 0.1125383 0.03720143 -0.1690866 -0.04831785 0.1800017 -0.01228061 -0.01730586 -0.07287858 -0.03426705 -0.1148377 0.0880015 -0.03764905 -0.03923606 0.02176531 0.125093 -0.07460697 0.1293532 0.1235808 -0.0120983 -0.0009589696 0.05329172 0.1480809 -0.1445702 0.05241255 -0.09425963 0.03616142 0.1529534 0.02851933 -0.0195523 0.04495532 -0.1141753 0.04594292 0.01985662 -0.1328317 0.04090178 -0.1026678 0.1221943 0.1156221 -0.0302761 0.03579222 -0.04744257 -0.07763051 0.1149219 -0.02692818 0.0001772228 -0.1451578 -0.06185351 0.07325839 -0.05645333 -0.09109206 0.1013141 -0.08110172 0.1027888 -0.02053696 -0.1541 0.1021222 -0.172676 -0.1281738 0.1035066 0.04170607 0.1185434 0.1008533 -0.00913585 -0.04240537 0.08801215 -0.0005422791 0.05702334 -0.08424304 -0.03945323 0.1030794 -0.1297194 0.09163946 0.04441899 -0.03436853 0.1042548 
  -0.02771204 0.02721453 -0.09048321 0.05104503 0.08916996 -0.03912494 0.1770008 -0.0270955 0.0997574 -0.04820693 0.07323927 -0.08831225 0.2012109 -0.06532009 -0.04279865 0.05088497 0.1163476 0.008998218 0.05601352 0.01847724 -0.1598613 0.09234405 -0.0001491953 -0.08947299 0.06188619 -0.01916085 0.07037415 0.04963042 0.131345 -0.04288378 0.02520307 0.08952189 -0.09243479 -0.1722129 0.09010173 -0.05445526 -0.1030555 -0.03143935 0.0711702 0.07499725 0.003623059 -0.1109433 0.007936444 -0.05202186 -0.05189417 -0.06875359 0.04203007 -0.1004727 -0.1543992 -0.01343909 0.1202969 -0.1085099 0.02858011 0.08184507 0.1850675 0.01432649 0.06120963 0.01745366 0.08046492 -0.0342259 -0.04821668 -0.1858663 -0.0305594 -0.0004819995 -0.03293702 0.1166321 -0.01436162 -0.02990532 -0.07672591 0.1372588 -0.05326938 -0.06689772 0.135488 0.1289999 -0.2422239 0.03845945 0.08521182 -0.0616574 0.1118691 -0.04476985 -0.0768756 0.0930489 0.1048314 -0.1208437 0.08168907 0.005229691 -0.1150777 -0.09138276 0.1336782 -0.1244484 0.0726547 0.07280193 0.1155137 0.05772445 0.09128442 0.09874363 -0.08653826 -0.1254769 0.1349662 -0.2040509 -0.1528327 0.1339758 0.08487231 -0.1473895 0.03015809 -0.0737485 -0.1882181 0.04074293 0.01790908 0.03861693 -0.1771111 0.08244603 -0.04418759 -0.1796395 0.03871592 -0.04145619 -0.04018995 -0.1340901 -0.08973422 -0.0634659 
  0.05234154 -0.001103989 0.1440411 -0.07939067 -0.02048108 0.2216908 -0.2043976 -0.04308803 -0.05681386 -0.0917746 0.1009626 0.02271254 -0.01445656 0.03904631 -0.1412091 -0.01564571 0.02648406 0.02247564 0.0008743057 -0.07663729 -0.1053456 0.02495969 -0.09302812 0.01289908 0.03654819 0.2639824 -0.01942945 0.1022004 -0.127921 -0.1295138 -0.07487252 -0.02610369 -0.1044963 0.05075051 0.00568624 0.002812049 0.08994107 0.003239509 -0.01698035 -0.02336624 -0.01377392 -0.09798302 -0.06100367 0.05423641 0.09786791 0.255968 0.07921071 0.005550503 0.06500898 -0.1721263 0.01861177 -0.03102272 0.02114648 0.1030142 0.01839294 -0.1167306 0.1437699 0.06816125 0.1403503 -0.02230476 -0.1098146 -0.1094308 -0.1370167 -0.03401459 -0.007899482 -0.02990906 0.03283384 -0.05243438 -0.2570089 -0.03066768 0.1301044 -0.06834135 0.009770817 -0.1377104 -0.1627933 -0.02036247 -0.09746216 -0.1179083 0.07181896 0.07720629 0.0899175 0.1990323 -0.02126464 -0.1239464 -0.07222372 0.04003878 -0.07942122 -0.005188937 0.101051 -0.07459278 -0.04274716 0.0751122 0.1596916 0.04796598 0.1084001 0.103229 0.03463753 -0.03498073 0.02851449 -0.005116645 -0.0736018 -0.01265352 -0.01472587 0.05166858 0.07761085 0.1502263 -0.1200021 -0.05565697 -0.0004555936 -0.03317095 0.04013051 0.106824 0.01925874 0.002825992 0.1402999 -0.08291579 -0.1722903 -0.04383708 -0.03124881 0.03034272 
  0.05743589 -0.05909353 0.01194251 0.1016619 -0.01280996 -0.2069146 -0.0102637 0.01125548 -0.1524819 0.03820745 -0.02061355 -0.134329 -0.001421051 0.08232158 0.0079256 0.02697071 0.1670806 -0.1688026 0.02617667 0.04253752 0.02897794 0.02503869 0.07755475 0.006450889 -0.06283101 -0.05428936 -0.01302949 0.0073185 -0.07609022 -0.02556624 -0.1756164 -0.07736465 -0.04481858 -0.06368279 0.1063524 0.03511561 0.1045407 0.03575965 0.0674432 -0.1025319 -0.09988789 -0.001300102 0.08645537 -0.1133206 -0.1191376 0.06717961 -0.1003526 -0.06821675 -0.02183491 0.1447938 -0.01983681 0.009713376 0.05303705 -0.09075417 0.03504378 -0.02229679 -0.00812209 -0.1270626 -0.004631515 -0.05187926 0.1023493 -0.05019385 0.005271436 -0.04457362 -0.07149789 0.05272745 -0.05702431 -0.1024439 0.05379638 -0.09589043 -0.02367378 -0.02060981 -0.05032682 -0.01111669 -0.05796535 -0.04836848 0.00153101 0.08442464 0.08745309 -0.05727609 -0.01194704 0.05972295 0.1204613 -0.004131621 -0.096976 -0.004809783 -0.04902326 -0.1433529 -0.01642896 -0.03912652 0.0839126 -0.08909427 -0.1051244 -0.1268433 0.06498676 0.1319866 0.02655916 -0.1973791 -0.03529413 0.007476117 -0.07285269 0.03743416 0.001597083 0.1037033 -0.06996343 -0.04597382 -5.867942e-05 -0.03278113 -0.1894102 0.04652053 0.1802787 0.1045358 -0.1207325 0.3145786 0.1166521 -0.006081238 0.01319641 0.1219438 -0.04142842 -0.1124187 ]
<BiasParams>  [ -1.266862 0.213418 1.202663 -1.261553 1.110903 2.102191 1.412359 0.2388987 -0.4802032 0.4828711 0.4224772 1.366759 -0.2053201 -0.219342 -0.9994273 -1.55328 -0.5440523 0.8109915 0.7007432 -0.3815192 -0.5774109 1.000271 0.7302184 -0.7100752 0.6146482 0.4584154 0.2475282 -0.3087721 -0.2418606 0.4007824 0.2966779 0.5299057 ]
<RankIn> 20 <RankOut> 16 <UpdatePeriod> 4 <NumSamplesHistory> 2000 <Alpha> 4 </NaturalGradientAffineComponent> 
<ComponentName> tdnn1.relu <RectifiedLinearComponent> <Dim> 32 <ValueAvg>  [ ]
<DerivAvg>  [ ]
<Count> 0 <OderivRms>  [ ]
<OderivCount> 0 <NumDimsSelfRepaired> 0 <NumDimsProcessed> 0 <SelfRepairScale> 1e-05 </RectifiedLinearComponent> 
</Nnet3> 